digraph Tree {
node [shape=box, style="filled, rounded", color="black", fontname="helvetica"] ;
edge [fontname="helvetica"] ;
0 [label="petal length (cm) <= 2.35\ngini = 0.66\nsamples = 97\nvalue = [48, 57, 45]\nclass = versicolor", fillcolor="#eefdf4"] ;
1 [label="gini = 0.0\nsamples = 28\nvalue = [48, 0, 0]\nclass = setosa", fillcolor="#e58139"] ;
0 -> 1 [labeldistance=2.5, labelangle=45, headlabel="True"] ;
2 [label="petal width (cm) <= 1.65\ngini = 0.49\nsamples = 69\nvalue = [0, 57, 45]\nclass = versicolor", fillcolor="#d5fae4"] ;
0 -> 2 [labeldistance=2.5, labelangle=-45, headlabel="False"] ;
3 [label="petal length (cm) <= 4.95\ngini = 0.07\nsamples = 37\nvalue = [0, 54, 2]\nclass = versicolor", fillcolor="#40e686"] ;
2 -> 3 ;
4 [label="gini = 0.0\nsamples = 36\nvalue = [0, 54, 0]\nclass = versicolor", fillcolor="#39e581"] ;
3 -> 4 ;
5 [label="gini = 0.0\nsamples = 1\nvalue = [0, 0, 2]\nclass = virginica", fillcolor="#8139e5"] ;
3 -> 5 ;
6 [label="petal width (cm) <= 1.85\ngini = 0.12\nsamples = 32\nvalue = [0, 3, 43]\nclass = virginica", fillcolor="#8a47e7"] ;
2 -> 6 ;
7 [label="sepal length (cm) <= 5.95\ngini = 0.29\nsamples = 10\nvalue = [0, 3, 14]\nclass = virginica", fillcolor="#9c63eb"] ;
6 -> 7 ;
8 [label="sepal width (cm) <= 2.85\ngini = 0.5\nsamples = 2\nvalue = [0, 2, 2]\nclass = versicolor", fillcolor="#ffffff"] ;
7 -> 8 ;
9 [label="gini = 0.0\nsamples = 1\nvalue = [0, 0, 2]\nclass = virginica", fillcolor="#8139e5"] ;
8 -> 9 ;
10 [label="gini = 0.0\nsamples = 1\nvalue = [0, 2, 0]\nclass = versicolor", fillcolor="#39e581"] ;
8 -> 10 ;
11 [label="petal width (cm) <= 1.75\ngini = 0.14\nsamples = 8\nvalue = [0, 1, 12]\nclass = virginica", fillcolor="#8c49e7"] ;
7 -> 11 ;
12 [label="gini = 0.0\nsamples = 1\nvalue = [0, 1, 0]\nclass = versicolor", fillcolor="#39e581"] ;
11 -> 12 ;
13 [label="gini = 0.0\nsamples = 7\nvalue = [0, 0, 12]\nclass = virginica", fillcolor="#8139e5"] ;
11 -> 13 ;
14 [label="gini = 0.0\nsamples = 22\nvalue = [0, 0, 29]\nclass = virginica", fillcolor="#8139e5"] ;
6 -> 14 ;
}